digraph Tree {
node [shape=box, style="filled, rounded", color="black", fontname=helvetica] ;
edge [fontname=helvetica] ;
0 [label="mygoal_dist <= 75.5446\ngini = 0.6861\nsamples = 143\nvalue = [36, 33, 7, 4, 63]\nclass = foncer", fillcolor="#e539c040"] ;
1 [label="hisgoal_dist <= 85.8597\ngini = 0.5224\nsamples = 78\nvalue = [10, 14, 3, 0, 51]\nclass = foncer", fillcolor="#e539c093"] ;
0 -> 1 [labeldistance=2.5, labelangle=45, headlabel="True"] ;
2 [label="ball_dist <= 14.8102\ngini = 0.2327\nsamples = 47\nvalue = [3, 1, 2, 0, 41]\nclass = foncer", fillcolor="#e539c0dc"] ;
1 -> 2 ;
3 [label="ball_dist <= 11.4782\ngini = 0.72\nsamples = 5\nvalue = [1, 1, 1, 0, 2]\nclass = foncer", fillcolor="#e539c040"] ;
2 -> 3 ;
4 [label="gini = 0.4444\nsamples = 3\nvalue = [0, 1, 0, 0, 2]\nclass = foncer", fillcolor="#e539c07f"] ;
3 -> 4 ;
5 [label="gini = 0.5\nsamples = 2\nvalue = [1, 0, 1, 0, 0]\nclass = att_droit", fillcolor="#e5813900"] ;
3 -> 5 ;
6 [label="pos_att_x <= 37.0046\ngini = 0.1349\nsamples = 42\nvalue = [2, 0, 1, 0, 39]\nclass = foncer", fillcolor="#e539c0ec"] ;
2 -> 6 ;
7 [label="gini = 0.0\nsamples = 19\nvalue = [0, 0, 0, 0, 19]\nclass = foncer", fillcolor="#e539c0ff"] ;
6 -> 7 ;
8 [label="ball_dist <= 37.6914\ngini = 0.2344\nsamples = 23\nvalue = [2, 0, 1, 0, 20]\nclass = foncer", fillcolor="#e539c0db"] ;
6 -> 8 ;
9 [label="gini = 0.1769\nsamples = 21\nvalue = [1, 0, 1, 0, 19]\nclass = foncer", fillcolor="#e539c0e6"] ;
8 -> 9 ;
10 [label="gini = 0.5\nsamples = 2\nvalue = [1, 0, 0, 0, 1]\nclass = att_droit", fillcolor="#e5813900"] ;
8 -> 10 ;
11 [label="hisgoal_dist <= 95.6765\ngini = 0.6681\nsamples = 31\nvalue = [7, 13, 1, 0, 10]\nclass = att_gauche", fillcolor="#7be53924"] ;
1 -> 11 ;
12 [label="gini = 0.0\nsamples = 4\nvalue = [4, 0, 0, 0, 0]\nclass = att_droit", fillcolor="#e58139ff"] ;
11 -> 12 ;
13 [label="ball_dist <= 35.0637\ngini = 0.6173\nsamples = 27\nvalue = [3, 13, 1, 0, 10]\nclass = att_gauche", fillcolor="#7be5392d"] ;
11 -> 13 ;
14 [label="mygoal_dist <= 61.1112\ngini = 0.5679\nsamples = 18\nvalue = [2, 6, 0, 0, 10]\nclass = foncer", fillcolor="#e539c055"] ;
13 -> 14 ;
15 [label="gini = 0.449\nsamples = 14\nvalue = [2, 2, 0, 0, 10]\nclass = foncer", fillcolor="#e539c0aa"] ;
14 -> 15 ;
16 [label="gini = 0.0\nsamples = 4\nvalue = [0, 4, 0, 0, 0]\nclass = att_gauche", fillcolor="#7be539ff"] ;
14 -> 16 ;
17 [label="hisgoal_dist <= 133.8055\ngini = 0.3704\nsamples = 9\nvalue = [1, 7, 1, 0, 0]\nclass = att_gauche", fillcolor="#7be539bf"] ;
13 -> 17 ;
18 [label="gini = 0.625\nsamples = 4\nvalue = [1, 2, 1, 0, 0]\nclass = att_gauche", fillcolor="#7be53955"] ;
17 -> 18 ;
19 [label="gini = 0.0\nsamples = 5\nvalue = [0, 5, 0, 0, 0]\nclass = att_gauche", fillcolor="#7be539ff"] ;
17 -> 19 ;
20 [label="hisgoal_dist <= 32.7451\ngini = 0.7129\nsamples = 65\nvalue = [26, 19, 4, 4, 12]\nclass = att_droit", fillcolor="#e5813927"] ;
0 -> 20 [labeldistance=2.5, labelangle=-45, headlabel="False"] ;
21 [label="ball_dist <= 110.6133\ngini = 0.4028\nsamples = 12\nvalue = [9, 1, 0, 2, 0]\nclass = att_droit", fillcolor="#e58139b2"] ;
20 -> 21 ;
22 [label="mygoal_dist <= 128.0993\ngini = 0.18\nsamples = 10\nvalue = [9, 1, 0, 0, 0]\nclass = att_droit", fillcolor="#e58139e3"] ;
21 -> 22 ;
23 [label="gini = 0.4444\nsamples = 3\nvalue = [2, 1, 0, 0, 0]\nclass = att_droit", fillcolor="#e581397f"] ;
22 -> 23 ;
24 [label="gini = 0.0\nsamples = 7\nvalue = [7, 0, 0, 0, 0]\nclass = att_droit", fillcolor="#e58139ff"] ;
22 -> 24 ;
25 [label="gini = 0.0\nsamples = 2\nvalue = [0, 0, 0, 2, 0]\nclass = def_gauche", fillcolor="#3c39e5ff"] ;
21 -> 25 ;
26 [label="ball_dist <= 5.1613\ngini = 0.7234\nsamples = 53\nvalue = [17, 18, 4, 2, 12]\nclass = att_gauche", fillcolor="#7be53907"] ;
20 -> 26 ;
27 [label="gini = 0.0\nsamples = 4\nvalue = [4, 0, 0, 0, 0]\nclass = att_droit", fillcolor="#e58139ff"] ;
26 -> 27 ;
28 [label="ball_dist <= 19.5732\ngini = 0.7264\nsamples = 49\nvalue = [13, 18, 4, 2, 12]\nclass = att_gauche", fillcolor="#7be53923"] ;
26 -> 28 ;
29 [label="hisgoal_dist <= 45.885\ngini = 0.608\nsamples = 25\nvalue = [3, 14, 2, 0, 6]\nclass = att_gauche", fillcolor="#7be5396b"] ;
28 -> 29 ;
30 [label="gini = 0.4444\nsamples = 3\nvalue = [1, 0, 0, 0, 2]\nclass = foncer", fillcolor="#e539c07f"] ;
29 -> 30 ;
31 [label="gini = 0.5455\nsamples = 22\nvalue = [2, 14, 2, 0, 4]\nclass = att_gauche", fillcolor="#7be5398e"] ;
29 -> 31 ;
32 [label="mygoal_dist <= 116.9309\ngini = 0.7222\nsamples = 24\nvalue = [10, 4, 2, 2, 6]\nclass = att_droit", fillcolor="#e5813939"] ;
28 -> 32 ;
33 [label="gini = 0.5204\nsamples = 14\nvalue = [9, 0, 2, 0, 3]\nclass = att_droit", fillcolor="#e581398b"] ;
32 -> 33 ;
34 [label="gini = 0.7\nsamples = 10\nvalue = [1, 4, 0, 2, 3]\nclass = att_gauche", fillcolor="#7be53924"] ;
32 -> 34 ;
}