digraph Tree {
node [shape=box, style="filled, rounded", color="black", fontname=helvetica] ;
edge [fontname=helvetica] ;
0 [label="pos_att_x <= 82.5135\ngini = 0.5116\nsamples = 145\nvalue = [76, 2, 67]\nclass = att_droit", fillcolor="#e581391d"] ;
1 [label="pos_att_x <= 33.7365\ngini = 0.3068\nsamples = 37\nvalue = [30, 0, 7]\nclass = att_droit", fillcolor="#e58139c4"] ;
0 -> 1 [labeldistance=2.5, labelangle=45, headlabel="True"] ;
2 [label="pos_att_x <= 30.0015\ngini = 0.5\nsamples = 12\nvalue = [6, 0, 6]\nclass = att_droit", fillcolor="#e5813900"] ;
1 -> 2 ;
3 [label="pos_att_x <= 23.9322\ngini = 0.375\nsamples = 8\nvalue = [6, 0, 2]\nclass = att_droit", fillcolor="#e58139aa"] ;
2 -> 3 ;
4 [label="gini = 0.0\nsamples = 2\nvalue = [2, 0, 0]\nclass = att_droit", fillcolor="#e58139ff"] ;
3 -> 4 ;
5 [label="pos_att_x <= 28.6791\ngini = 0.4444\nsamples = 6\nvalue = [4, 0, 2]\nclass = att_droit", fillcolor="#e581397f"] ;
3 -> 5 ;
6 [label="gini = 0.375\nsamples = 4\nvalue = [3, 0, 1]\nclass = att_droit", fillcolor="#e58139aa"] ;
5 -> 6 ;
7 [label="gini = 0.5\nsamples = 2\nvalue = [1, 0, 1]\nclass = att_droit", fillcolor="#e5813900"] ;
5 -> 7 ;
8 [label="gini = 0.0\nsamples = 4\nvalue = [0, 0, 4]\nclass = foncer", fillcolor="#8139e5ff"] ;
2 -> 8 ;
9 [label="pos_att_x <= 46.8272\ngini = 0.0768\nsamples = 25\nvalue = [24, 0, 1]\nclass = att_droit", fillcolor="#e58139f4"] ;
1 -> 9 ;
10 [label="pos_att_x <= 41.6733\ngini = 0.2778\nsamples = 6\nvalue = [5, 0, 1]\nclass = att_droit", fillcolor="#e58139cc"] ;
9 -> 10 ;
11 [label="gini = 0.0\nsamples = 4\nvalue = [4, 0, 0]\nclass = att_droit", fillcolor="#e58139ff"] ;
10 -> 11 ;
12 [label="gini = 0.5\nsamples = 2\nvalue = [1, 0, 1]\nclass = att_droit", fillcolor="#e5813900"] ;
10 -> 12 ;
13 [label="gini = 0.0\nsamples = 19\nvalue = [19, 0, 0]\nclass = att_droit", fillcolor="#e58139ff"] ;
9 -> 13 ;
14 [label="pos_att_x <= 113.8916\ngini = 0.5096\nsamples = 108\nvalue = [46, 2, 60]\nclass = foncer", fillcolor="#8139e53a"] ;
0 -> 14 [labeldistance=2.5, labelangle=-45, headlabel="False"] ;
15 [label="hisgoal_dist <= 82.0482\ngini = 0.4835\nsamples = 86\nvalue = [30, 2, 54]\nclass = foncer", fillcolor="#8139e56d"] ;
14 -> 15 ;
16 [label="pos_att_x <= 98.2499\ngini = 0.5397\nsamples = 46\nvalue = [23, 2, 21]\nclass = att_droit", fillcolor="#e5813914"] ;
15 -> 16 ;
17 [label="ball_dist <= 17.7582\ngini = 0.3457\nsamples = 18\nvalue = [14, 0, 4]\nclass = att_droit", fillcolor="#e58139b6"] ;
16 -> 17 ;
18 [label="gini = 0.375\nsamples = 4\nvalue = [1, 0, 3]\nclass = foncer", fillcolor="#8139e5aa"] ;
17 -> 18 ;
19 [label="gini = 0.1327\nsamples = 14\nvalue = [13, 0, 1]\nclass = att_droit", fillcolor="#e58139eb"] ;
17 -> 19 ;
20 [label="hisgoal_dist <= 31.2807\ngini = 0.523\nsamples = 28\nvalue = [9, 2, 17]\nclass = foncer", fillcolor="#8139e56b"] ;
16 -> 20 ;
21 [label="gini = 0.0\nsamples = 2\nvalue = [2, 0, 0]\nclass = att_droit", fillcolor="#e58139ff"] ;
20 -> 21 ;
22 [label="gini = 0.4941\nsamples = 26\nvalue = [7, 2, 17]\nclass = foncer", fillcolor="#8139e586"] ;
20 -> 22 ;
23 [label="mygoal_dist <= 23.4283\ngini = 0.2887\nsamples = 40\nvalue = [7, 0, 33]\nclass = foncer", fillcolor="#8139e5c9"] ;
15 -> 23 ;
24 [label="gini = 0.4444\nsamples = 3\nvalue = [2, 0, 1]\nclass = att_droit", fillcolor="#e581397f"] ;
23 -> 24 ;
25 [label="pos_att_x <= 100.6793\ngini = 0.2337\nsamples = 37\nvalue = [5, 0, 32]\nclass = foncer", fillcolor="#8139e5d7"] ;
23 -> 25 ;
26 [label="gini = 0.0\nsamples = 13\nvalue = [0, 0, 13]\nclass = foncer", fillcolor="#8139e5ff"] ;
25 -> 26 ;
27 [label="gini = 0.3299\nsamples = 24\nvalue = [5, 0, 19]\nclass = foncer", fillcolor="#8139e5bc"] ;
25 -> 27 ;
28 [label="ball_dist <= 17.2177\ngini = 0.3967\nsamples = 22\nvalue = [16, 0, 6]\nclass = att_droit", fillcolor="#e581399f"] ;
14 -> 28 ;
29 [label="ball_dist <= 5.3387\ngini = 0.497\nsamples = 13\nvalue = [7, 0, 6]\nclass = att_droit", fillcolor="#e5813924"] ;
28 -> 29 ;
30 [label="pos_att_x <= 124.5413\ngini = 0.375\nsamples = 4\nvalue = [1, 0, 3]\nclass = foncer", fillcolor="#8139e5aa"] ;
29 -> 30 ;
31 [label="gini = 0.5\nsamples = 2\nvalue = [1, 0, 1]\nclass = att_droit", fillcolor="#e5813900"] ;
30 -> 31 ;
32 [label="gini = 0.0\nsamples = 2\nvalue = [0, 0, 2]\nclass = foncer", fillcolor="#8139e5ff"] ;
30 -> 32 ;
33 [label="pos_att_x <= 124.8634\ngini = 0.4444\nsamples = 9\nvalue = [6, 0, 3]\nclass = att_droit", fillcolor="#e581397f"] ;
29 -> 33 ;
34 [label="gini = 0.4444\nsamples = 3\nvalue = [1, 0, 2]\nclass = foncer", fillcolor="#8139e57f"] ;
33 -> 34 ;
35 [label="gini = 0.2778\nsamples = 6\nvalue = [5, 0, 1]\nclass = att_droit", fillcolor="#e58139cc"] ;
33 -> 35 ;
36 [label="gini = 0.0\nsamples = 9\nvalue = [9, 0, 0]\nclass = att_droit", fillcolor="#e58139ff"] ;
28 -> 36 ;
}